digraph Tree {
node [shape=box] ;
0 [label="X[0] <= 0.465\ngini = 0.3615\nsamples = 10499\nvalue = [8012, 2487]"] ;
1 [label="X[2] <= 2.5\ngini = 0.4761\nsamples = 2911\nvalue = [1137, 1774]"] ;
0 -> 1 [labeldistance=2.5, labelangle=45, headlabel="True"] ;
2 [label="X[1] <= 0.575\ngini = 0.2088\nsamples = 1241\nvalue = [147, 1094]"] ;
1 -> 2 ;
3 [label="X[1] <= 0.445\ngini = 0.1006\nsamples = 1148\nvalue = [61, 1087]"] ;
2 -> 3 ;
4 [label="gini = 0.0\nsamples = 24\nvalue = [24, 0]"] ;
3 -> 4 ;
5 [label="X[3] <= 125.5\ngini = 0.0637\nsamples = 1124\nvalue = [37, 1087]"] ;
3 -> 5 ;
6 [label="gini = 0.0\nsamples = 13\nvalue = [13, 0]"] ;
5 -> 6 ;
7 [label="X[3] <= 163.5\ngini = 0.0423\nsamples = 1111\nvalue = [24, 1087]"] ;
5 -> 7 ;
8 [label="X[0] <= 0.315\ngini = 0.0146\nsamples = 1089\nvalue = [8, 1081]"] ;
7 -> 8 ;
9 [label="X[0] <= 0.185\ngini = 0.2778\nsamples = 6\nvalue = [5, 1]"] ;
8 -> 9 ;
10 [label="gini = 0.0\nsamples = 1\nvalue = [0, 1]"] ;
9 -> 10 ;
11 [label="gini = 0.0\nsamples = 5\nvalue = [5, 0]"] ;
9 -> 11 ;
12 [label="X[0] <= 0.34\ngini = 0.0055\nsamples = 1083\nvalue = [3, 1080]"] ;
8 -> 12 ;
13 [label="X[3] <= 139.0\ngini = 0.4444\nsamples = 3\nvalue = [1, 2]"] ;
12 -> 13 ;
14 [label="gini = 0.0\nsamples = 2\nvalue = [0, 2]"] ;
13 -> 14 ;
15 [label="gini = 0.0\nsamples = 1\nvalue = [1, 0]"] ;
13 -> 15 ;
16 [label="X[16] <= 0.5\ngini = 0.0037\nsamples = 1080\nvalue = [2, 1078]"] ;
12 -> 16 ;
17 [label="X[3] <= 150.5\ngini = 0.0019\nsamples = 1049\nvalue = [1, 1048]"] ;
16 -> 17 ;
18 [label="gini = 0.0\nsamples = 726\nvalue = [0, 726]"] ;
17 -> 18 ;
19 [label="X[3] <= 151.5\ngini = 0.0062\nsamples = 323\nvalue = [1, 322]"] ;
17 -> 19 ;
20 [label="X[0] <= 0.415\ngini = 0.05\nsamples = 39\nvalue = [1, 38]"] ;
19 -> 20 ;
21 [label="gini = 0.0\nsamples = 29\nvalue = [0, 29]"] ;
20 -> 21 ;
22 [label="X[13] <= 0.5\ngini = 0.18\nsamples = 10\nvalue = [1, 9]"] ;
20 -> 22 ;
23 [label="gini = 0.0\nsamples = 9\nvalue = [0, 9]"] ;
22 -> 23 ;
24 [label="gini = 0.0\nsamples = 1\nvalue = [1, 0]"] ;
22 -> 24 ;
25 [label="gini = 0.0\nsamples = 284\nvalue = [0, 284]"] ;
19 -> 25 ;
26 [label="X[6] <= 0.5\ngini = 0.0624\nsamples = 31\nvalue = [1, 30]"] ;
16 -> 26 ;
27 [label="gini = 0.0\nsamples = 28\nvalue = [0, 28]"] ;
26 -> 27 ;
28 [label="X[0] <= 0.385\ngini = 0.4444\nsamples = 3\nvalue = [1, 2]"] ;
26 -> 28 ;
29 [label="gini = 0.0\nsamples = 1\nvalue = [1, 0]"] ;
28 -> 29 ;
30 [label="gini = 0.0\nsamples = 2\nvalue = [0, 2]"] ;
28 -> 30 ;
31 [label="X[3] <= 234.0\ngini = 0.3967\nsamples = 22\nvalue = [16, 6]"] ;
7 -> 31 ;
32 [label="gini = 0.0\nsamples = 14\nvalue = [14, 0]"] ;
31 -> 32 ;
33 [label="X[4] <= 4.5\ngini = 0.375\nsamples = 8\nvalue = [2, 6]"] ;
31 -> 33 ;
34 [label="gini = 0.0\nsamples = 6\nvalue = [0, 6]"] ;
33 -> 34 ;
35 [label="gini = 0.0\nsamples = 2\nvalue = [2, 0]"] ;
33 -> 35 ;
36 [label="X[3] <= 278.5\ngini = 0.1392\nsamples = 93\nvalue = [86, 7]"] ;
2 -> 36 ;
37 [label="X[15] <= 0.5\ngini = 0.0858\nsamples = 89\nvalue = [85, 4]"] ;
36 -> 37 ;
38 [label="X[0] <= 0.455\ngini = 0.0263\nsamples = 75\nvalue = [74, 1]"] ;
37 -> 38 ;
39 [label="gini = 0.0\nsamples = 69\nvalue = [69, 0]"] ;
38 -> 39 ;
40 [label="X[1] <= 0.84\ngini = 0.2778\nsamples = 6\nvalue = [5, 1]"] ;
38 -> 40 ;
41 [label="gini = 0.0\nsamples = 5\nvalue = [5, 0]"] ;
40 -> 41 ;
42 [label="gini = 0.0\nsamples = 1\nvalue = [0, 1]"] ;
40 -> 42 ;
43 [label="X[17] <= 0.5\ngini = 0.3367\nsamples = 14\nvalue = [11, 3]"] ;
37 -> 43 ;
44 [label="gini = 0.0\nsamples = 8\nvalue = [8, 0]"] ;
43 -> 44 ;
45 [label="X[3] <= 143.5\ngini = 0.5\nsamples = 6\nvalue = [3, 3]"] ;
43 -> 45 ;
46 [label="gini = 0.0\nsamples = 2\nvalue = [2, 0]"] ;
45 -> 46 ;
47 [label="X[0] <= 0.285\ngini = 0.375\nsamples = 4\nvalue = [1, 3]"] ;
45 -> 47 ;
48 [label="gini = 0.0\nsamples = 1\nvalue = [1, 0]"] ;
47 -> 48 ;
49 [label="gini = 0.0\nsamples = 3\nvalue = [0, 3]"] ;
47 -> 49 ;
50 [label="X[0] <= 0.415\ngini = 0.375\nsamples = 4\nvalue = [1, 3]"] ;
36 -> 50 ;
51 [label="gini = 0.0\nsamples = 3\nvalue = [0, 3]"] ;
50 -> 51 ;
52 [label="gini = 0.0\nsamples = 1\nvalue = [1, 0]"] ;
50 -> 52 ;
53 [label="X[0] <= 0.115\ngini = 0.4828\nsamples = 1670\nvalue = [990, 680]"] ;
1 -> 53 ;
54 [label="gini = 0.0\nsamples = 599\nvalue = [0, 599]"] ;
53 -> 54 ;
55 [label="X[2] <= 6.5\ngini = 0.1398\nsamples = 1071\nvalue = [990, 81]"] ;
53 -> 55 ;
56 [label="X[3] <= 289.0\ngini = 0.1279\nsamples = 1063\nvalue = [990, 73]"] ;
55 -> 56 ;
57 [label="X[1] <= 0.995\ngini = 0.1156\nsamples = 1055\nvalue = [990, 65]"] ;
56 -> 57 ;
58 [label="X[0] <= 0.305\ngini = 0.1081\nsamples = 1046\nvalue = [986, 60]"] ;
57 -> 58 ;
59 [label="X[0] <= 0.145\ngini = 0.0698\nsamples = 663\nvalue = [639, 24]"] ;
58 -> 59 ;
60 [label="X[4] <= 2.5\ngini = 0.168\nsamples = 108\nvalue = [98, 10]"] ;
59 -> 60 ;
61 [label="X[2] <= 3.5\ngini = 0.5\nsamples = 10\nvalue = [5, 5]"] ;
60 -> 61 ;
62 [label="gini = 0.0\nsamples = 3\nvalue = [3, 0]"] ;
61 -> 62 ;
63 [label="X[3] <= 150.5\ngini = 0.4082\nsamples = 7\nvalue = [2, 5]"] ;
61 -> 63 ;
64 [label="X[0] <= 0.125\ngini = 0.4444\nsamples = 3\nvalue = [2, 1]"] ;
63 -> 64 ;
65 [label="gini = 0.0\nsamples = 1\nvalue = [0, 1]"] ;
64 -> 65 ;
66 [label="gini = 0.0\nsamples = 2\nvalue = [2, 0]"] ;
64 -> 66 ;
67 [label="gini = 0.0\nsamples = 4\nvalue = [0, 4]"] ;
63 -> 67 ;
68 [label="X[0] <= 0.135\ngini = 0.0968\nsamples = 98\nvalue = [93, 5]"] ;
60 -> 68 ;
69 [label="gini = 0.0\nsamples = 53\nvalue = [53, 0]"] ;
68 -> 69 ;
70 [label="X[1] <= 0.755\ngini = 0.1975\nsamples = 45\nvalue = [40, 5]"] ;
68 -> 70 ;
71 [label="X[15] <= 0.5\ngini = 0.3107\nsamples = 26\nvalue = [21, 5]"] ;
70 -> 71 ;
72 [label="X[1] <= 0.745\ngini = 0.2268\nsamples = 23\nvalue = [20, 3]"] ;
71 -> 72 ;
73 [label="X[4] <= 3.5\ngini = 0.1653\nsamples = 22\nvalue = [20, 2]"] ;
72 -> 73 ;
74 [label="X[2] <= 5.5\ngini = 0.5\nsamples = 2\nvalue = [1, 1]"] ;
73 -> 74 ;
75 [label="gini = 0.0\nsamples = 1\nvalue = [0, 1]"] ;
74 -> 75 ;
76 [label="gini = 0.0\nsamples = 1\nvalue = [1, 0]"] ;
74 -> 76 ;
77 [label="X[6] <= 0.5\ngini = 0.095\nsamples = 20\nvalue = [19, 1]"] ;
73 -> 77 ;
78 [label="gini = 0.0\nsamples = 17\nvalue = [17, 0]"] ;
77 -> 78 ;
79 [label="X[1] <= 0.64\ngini = 0.4444\nsamples = 3\nvalue = [2, 1]"] ;
77 -> 79 ;
80 [label="gini = 0.0\nsamples = 1\nvalue = [0, 1]"] ;
79 -> 80 ;
81 [label="gini = 0.0\nsamples = 2\nvalue = [2, 0]"] ;
79 -> 81 ;
82 [label="gini = 0.0\nsamples = 1\nvalue = [0, 1]"] ;
72 -> 82 ;
83 [label="X[3] <= 159.0\ngini = 0.4444\nsamples = 3\nvalue = [1, 2]"] ;
71 -> 83 ;
84 [label="gini = 0.0\nsamples = 2\nvalue = [0, 2]"] ;
83 -> 84 ;
85 [label="gini = 0.0\nsamples = 1\nvalue = [1, 0]"] ;
83 -> 85 ;
86 [label="gini = 0.0\nsamples = 19\nvalue = [19, 0]"] ;
70 -> 86 ;
87 [label="X[8] <= 0.5\ngini = 0.0492\nsamples = 555\nvalue = [541, 14]"] ;
59 -> 87 ;
88 [label="X[0] <= 0.205\ngini = 0.0377\nsamples = 521\nvalue = [511, 10]"] ;
87 -> 88 ;
89 [label="X[0] <= 0.195\ngini = 0.0627\nsamples = 247\nvalue = [239, 8]"] ;
88 -> 89 ;
90 [label="X[13] <= 0.5\ngini = 0.0374\nsamples = 210\nvalue = [206, 4]"] ;
89 -> 90 ;
91 [label="X[2] <= 3.5\ngini = 0.0137\nsamples = 145\nvalue = [144, 1]"] ;
90 -> 91 ;
92 [label="X[15] <= 0.5\ngini = 0.0713\nsamples = 27\nvalue = [26, 1]"] ;
91 -> 92 ;
93 [label="gini = 0.0\nsamples = 21\nvalue = [21, 0]"] ;
92 -> 93 ;
94 [label="X[17] <= 0.5\ngini = 0.2778\nsamples = 6\nvalue = [5, 1]"] ;
92 -> 94 ;
95 [label="gini = 0.0\nsamples = 4\nvalue = [4, 0]"] ;
94 -> 95 ;
96 [label="X[0] <= 0.165\ngini = 0.5\nsamples = 2\nvalue = [1, 1]"] ;
94 -> 96 ;
97 [label="gini = 0.0\nsamples = 1\nvalue = [1, 0]"] ;
96 -> 97 ;
98 [label="gini = 0.0\nsamples = 1\nvalue = [0, 1]"] ;
96 -> 98 ;
99 [label="gini = 0.0\nsamples = 118\nvalue = [118, 0]"] ;
91 -> 99 ;
100 [label="X[3] <= 231.5\ngini = 0.088\nsamples = 65\nvalue = [62, 3]"] ;
90 -> 100 ;
101 [label="gini = 0.0\nsamples = 49\nvalue = [49, 0]"] ;
100 -> 101 ;
102 [label="X[3] <= 232.5\ngini = 0.3047\nsamples = 16\nvalue = [13, 3]"] ;
100 -> 102 ;
103 [label="X[18] <= 0.5\ngini = 0.5\nsamples = 4\nvalue = [2, 2]"] ;
102 -> 103 ;
104 [label="gini = 0.0\nsamples = 2\nvalue = [0, 2]"] ;
103 -> 104 ;
105 [label="gini = 0.0\nsamples = 2\nvalue = [2, 0]"] ;
103 -> 105 ;
106 [label="X[1] <= 0.56\ngini = 0.1528\nsamples = 12\nvalue = [11, 1]"] ;
102 -> 106 ;
107 [label="X[1] <= 0.525\ngini = 0.375\nsamples = 4\nvalue = [3, 1]"] ;
106 -> 107 ;
108 [label="gini = 0.0\nsamples = 3\nvalue = [3, 0]"] ;
107 -> 108 ;
109 [label="gini = 0.0\nsamples = 1\nvalue = [0, 1]"] ;
107 -> 109 ;
110 [label="gini = 0.0\nsamples = 8\nvalue = [8, 0]"] ;
106 -> 110 ;
111 [label="X[3] <= 143.0\ngini = 0.1928\nsamples = 37\nvalue = [33, 4]"] ;
89 -> 111 ;
112 [label="X[3] <= 129.0\ngini = 0.5\nsamples = 6\nvalue = [3, 3]"] ;
111 -> 112 ;
113 [label="gini = 0.0\nsamples = 3\nvalue = [3, 0]"] ;
112 -> 113 ;
114 [label="gini = 0.0\nsamples = 3\nvalue = [0, 3]"] ;
112 -> 114 ;
115 [label="X[3] <= 275.0\ngini = 0.0624\nsamples = 31\nvalue = [30, 1]"] ;
111 -> 115 ;
116 [label="gini = 0.0\nsamples = 30\nvalue = [30, 0]"] ;
115 -> 116 ;
117 [label="gini = 0.0\nsamples = 1\nvalue = [0, 1]"] ;
115 -> 117 ;
118 [label="X[1] <= 0.465\ngini = 0.0145\nsamples = 274\nvalue = [272, 2]"] ;
88 -> 118 ;
119 [label="X[1] <= 0.455\ngini = 0.0624\nsamples = 31\nvalue = [30, 1]"] ;
118 -> 119 ;
120 [label="gini = 0.0\nsamples = 30\nvalue = [30, 0]"] ;
119 -> 120 ;
121 [label="gini = 0.0\nsamples = 1\nvalue = [0, 1]"] ;
119 -> 121 ;
122 [label="X[14] <= 0.5\ngini = 0.0082\nsamples = 243\nvalue = [242, 1]"] ;
118 -> 122 ;
123 [label="gini = 0.0\nsamples = 202\nvalue = [202, 0]"] ;
122 -> 123 ;
124 [label="X[3] <= 168.5\ngini = 0.0476\nsamples = 41\nvalue = [40, 1]"] ;
122 -> 124 ;
125 [label="X[3] <= 166.5\ngini = 0.1653\nsamples = 11\nvalue = [10, 1]"] ;
124 -> 125 ;
126 [label="gini = 0.0\nsamples = 10\nvalue = [10, 0]"] ;
125 -> 126 ;
127 [label="gini = 0.0\nsamples = 1\nvalue = [0, 1]"] ;
125 -> 127 ;
128 [label="gini = 0.0\nsamples = 30\nvalue = [30, 0]"] ;
124 -> 128 ;
129 [label="X[2] <= 5.5\ngini = 0.2076\nsamples = 34\nvalue = [30, 4]"] ;
87 -> 129 ;
130 [label="X[3] <= 276.5\ngini = 0.074\nsamples = 26\nvalue = [25, 1]"] ;
129 -> 130 ;
131 [label="gini = 0.0\nsamples = 23\nvalue = [23, 0]"] ;
130 -> 131 ;
132 [label="X[3] <= 278.5\ngini = 0.4444\nsamples = 3\nvalue = [2, 1]"] ;
130 -> 132 ;
133 [label="gini = 0.0\nsamples = 1\nvalue = [0, 1]"] ;
132 -> 133 ;
134 [label="gini = 0.0\nsamples = 2\nvalue = [2, 0]"] ;
132 -> 134 ;
135 [label="X[17] <= 0.5\ngini = 0.4688\nsamples = 8\nvalue = [5, 3]"] ;
129 -> 135 ;
136 [label="gini = 0.0\nsamples = 5\nvalue = [5, 0]"] ;
135 -> 136 ;
137 [label="gini = 0.0\nsamples = 3\nvalue = [0, 3]"] ;
135 -> 137 ;
138 [label="X[0] <= 0.315\ngini = 0.1703\nsamples = 383\nvalue = [347, 36]"] ;
58 -> 138 ;
139 [label="X[2] <= 3.5\ngini = 0.42\nsamples = 40\nvalue = [28, 12]"] ;
138 -> 139 ;
140 [label="gini = 0.0\nsamples = 10\nvalue = [10, 0]"] ;
139 -> 140 ;
141 [label="X[5] <= 0.5\ngini = 0.48\nsamples = 30\nvalue = [18, 12]"] ;
139 -> 141 ;
142 [label="X[13] <= 0.5\ngini = 0.4992\nsamples = 25\nvalue = [13, 12]"] ;
141 -> 142 ;
143 [label="X[3] <= 233.5\ngini = 0.4717\nsamples = 21\nvalue = [13, 8]"] ;
142 -> 143 ;
144 [label="X[2] <= 5.5\ngini = 0.3599\nsamples = 17\nvalue = [13, 4]"] ;
143 -> 144 ;
145 [label="X[15] <= 0.5\ngini = 0.2311\nsamples = 15\nvalue = [13, 2]"] ;
144 -> 145 ;
146 [label="gini = 0.0\nsamples = 11\nvalue = [11, 0]"] ;
145 -> 146 ;
147 [label="X[1] <= 0.645\ngini = 0.5\nsamples = 4\nvalue = [2, 2]"] ;
145 -> 147 ;
148 [label="gini = 0.0\nsamples = 2\nvalue = [2, 0]"] ;
147 -> 148 ;
149 [label="gini = 0.0\nsamples = 2\nvalue = [0, 2]"] ;
147 -> 149 ;
150 [label="gini = 0.0\nsamples = 2\nvalue = [0, 2]"] ;
144 -> 150 ;
151 [label="gini = 0.0\nsamples = 4\nvalue = [0, 4]"] ;
143 -> 151 ;
152 [label="gini = 0.0\nsamples = 4\nvalue = [0, 4]"] ;
142 -> 152 ;
153 [label="gini = 0.0\nsamples = 5\nvalue = [5, 0]"] ;
141 -> 153 ;
154 [label="X[1] <= 0.855\ngini = 0.1301\nsamples = 343\nvalue = [319, 24]"] ;
138 -> 154 ;
155 [label="X[3] <= 198.0\ngini = 0.0925\nsamples = 288\nvalue = [274, 14]"] ;
154 -> 155 ;
156 [label="X[11] <= 0.5\ngini = 0.0293\nsamples = 202\nvalue = [199, 3]"] ;
155 -> 156 ;
157 [label="X[0] <= 0.345\ngini = 0.0203\nsamples = 195\nvalue = [193, 2]"] ;
156 -> 157 ;
158 [label="X[13] <= 0.5\ngini = 0.1327\nsamples = 28\nvalue = [26, 2]"] ;
157 -> 158 ;
159 [label="gini = 0.0\nsamples = 22\nvalue = [22, 0]"] ;
158 -> 159 ;
160 [label="X[17] <= 0.5\ngini = 0.4444\nsamples = 6\nvalue = [4, 2]"] ;
158 -> 160 ;
161 [label="gini = 0.0\nsamples = 4\nvalue = [4, 0]"] ;
160 -> 161 ;
162 [label="gini = 0.0\nsamples = 2\nvalue = [0, 2]"] ;
160 -> 162 ;
163 [label="gini = 0.0\nsamples = 167\nvalue = [167, 0]"] ;
157 -> 163 ;
164 [label="X[3] <= 144.0\ngini = 0.2449\nsamples = 7\nvalue = [6, 1]"] ;
156 -> 164 ;
165 [label="X[3] <= 125.5\ngini = 0.5\nsamples = 2\nvalue = [1, 1]"] ;
164 -> 165 ;
166 [label="gini = 0.0\nsamples = 1\nvalue = [1, 0]"] ;
165 -> 166 ;
167 [label="gini = 0.0\nsamples = 1\nvalue = [0, 1]"] ;
165 -> 167 ;
168 [label="gini = 0.0\nsamples = 5\nvalue = [5, 0]"] ;
164 -> 168 ;
169 [label="X[3] <= 219.5\ngini = 0.2231\nsamples = 86\nvalue = [75, 11]"] ;
155 -> 169 ;
170 [label="X[0] <= 0.405\ngini = 0.3841\nsamples = 27\nvalue = [20, 7]"] ;
169 -> 170 ;
171 [label="gini = 0.0\nsamples = 12\nvalue = [12, 0]"] ;
170 -> 171 ;
172 [label="X[1] <= 0.51\ngini = 0.4978\nsamples = 15\nvalue = [8, 7]"] ;
170 -> 172 ;
173 [label="gini = 0.0\nsamples = 3\nvalue = [3, 0]"] ;
172 -> 173 ;
174 [label="X[3] <= 210.5\ngini = 0.4861\nsamples = 12\nvalue = [5, 7]"] ;
172 -> 174 ;
175 [label="X[2] <= 3.5\ngini = 0.4688\nsamples = 8\nvalue = [5, 3]"] ;
174 -> 175 ;
176 [label="X[0] <= 0.435\ngini = 0.375\nsamples = 4\nvalue = [1, 3]"] ;
175 -> 176 ;
177 [label="gini = 0.0\nsamples = 3\nvalue = [0, 3]"] ;
176 -> 177 ;
178 [label="gini = 0.0\nsamples = 1\nvalue = [1, 0]"] ;
176 -> 178 ;
179 [label="gini = 0.0\nsamples = 4\nvalue = [4, 0]"] ;
175 -> 179 ;
180 [label="gini = 0.0\nsamples = 4\nvalue = [0, 4]"] ;
174 -> 180 ;
181 [label="X[13] <= 0.5\ngini = 0.1264\nsamples = 59\nvalue = [55, 4]"] ;
169 -> 181 ;
182 [label="X[4] <= 2.5\ngini = 0.0425\nsamples = 46\nvalue = [45, 1]"] ;
181 -> 182 ;
183 [label="X[3] <= 240.0\ngini = 0.1653\nsamples = 11\nvalue = [10, 1]"] ;
182 -> 183 ;
184 [label="X[3] <= 236.5\ngini = 0.4444\nsamples = 3\nvalue = [2, 1]"] ;
183 -> 184 ;
185 [label="gini = 0.0\nsamples = 2\nvalue = [2, 0]"] ;
184 -> 185 ;
186 [label="gini = 0.0\nsamples = 1\nvalue = [0, 1]"] ;
184 -> 186 ;
187 [label="gini = 0.0\nsamples = 8\nvalue = [8, 0]"] ;
183 -> 187 ;
188 [label="gini = 0.0\nsamples = 35\nvalue = [35, 0]"] ;
182 -> 188 ;
189 [label="X[4] <= 2.5\ngini = 0.355\nsamples = 13\nvalue = [10, 3]"] ;
181 -> 189 ;
190 [label="gini = 0.0\nsamples = 1\nvalue = [0, 1]"] ;
189 -> 190 ;
191 [label="X[1] <= 0.66\ngini = 0.2778\nsamples = 12\nvalue = [10, 2]"] ;
189 -> 191 ;
192 [label="X[1] <= 0.575\ngini = 0.4444\nsamples = 6\nvalue = [4, 2]"] ;
191 -> 192 ;
193 [label="gini = 0.0\nsamples = 3\nvalue = [3, 0]"] ;
192 -> 193 ;
194 [label="X[4] <= 3.5\ngini = 0.4444\nsamples = 3\nvalue = [1, 2]"] ;
192 -> 194 ;
195 [label="gini = 0.0\nsamples = 1\nvalue = [1, 0]"] ;
194 -> 195 ;
196 [label="gini = 0.0\nsamples = 2\nvalue = [0, 2]"] ;
194 -> 196 ;
197 [label="gini = 0.0\nsamples = 6\nvalue = [6, 0]"] ;
191 -> 197 ;
198 [label="X[0] <= 0.385\ngini = 0.2975\nsamples = 55\nvalue = [45, 10]"] ;
154 -> 198 ;
199 [label="X[2] <= 4.5\ngini = 0.4527\nsamples = 26\nvalue = [17, 9]"] ;
198 -> 199 ;
200 [label="gini = 0.0\nsamples = 10\nvalue = [10, 0]"] ;
199 -> 200 ;
201 [label="X[3] <= 228.5\ngini = 0.4922\nsamples = 16\nvalue = [7, 9]"] ;
199 -> 201 ;
202 [label="X[1] <= 0.96\ngini = 0.2975\nsamples = 11\nvalue = [2, 9]"] ;
201 -> 202 ;
203 [label="gini = 0.0\nsamples = 8\nvalue = [0, 8]"] ;
202 -> 203 ;
204 [label="X[3] <= 154.0\ngini = 0.4444\nsamples = 3\nvalue = [2, 1]"] ;
202 -> 204 ;
205 [label="gini = 0.0\nsamples = 2\nvalue = [2, 0]"] ;
204 -> 205 ;
206 [label="gini = 0.0\nsamples = 1\nvalue = [0, 1]"] ;
204 -> 206 ;
207 [label="gini = 0.0\nsamples = 5\nvalue = [5, 0]"] ;
201 -> 207 ;
208 [label="X[10] <= 0.5\ngini = 0.0666\nsamples = 29\nvalue = [28, 1]"] ;
198 -> 208 ;
209 [label="gini = 0.0\nsamples = 28\nvalue = [28, 0]"] ;
208 -> 209 ;
210 [label="gini = 0.0\nsamples = 1\nvalue = [0, 1]"] ;
208 -> 210 ;
211 [label="X[2] <= 5.5\ngini = 0.4938\nsamples = 9\nvalue = [4, 5]"] ;
57 -> 211 ;
212 [label="X[3] <= 183.0\ngini = 0.4082\nsamples = 7\nvalue = [2, 5]"] ;
211 -> 212 ;
213 [label="X[0] <= 0.29\ngini = 0.4444\nsamples = 3\nvalue = [2, 1]"] ;
212 -> 213 ;
214 [label="gini = 0.0\nsamples = 2\nvalue = [2, 0]"] ;
213 -> 214 ;
215 [label="gini = 0.0\nsamples = 1\nvalue = [0, 1]"] ;
213 -> 215 ;
216 [label="gini = 0.0\nsamples = 4\nvalue = [0, 4]"] ;
212 -> 216 ;
217 [label="gini = 0.0\nsamples = 2\nvalue = [2, 0]"] ;
211 -> 217 ;
218 [label="gini = 0.0\nsamples = 8\nvalue = [0, 8]"] ;
56 -> 218 ;
219 [label="gini = 0.0\nsamples = 8\nvalue = [0, 8]"] ;
55 -> 219 ;
220 [label="X[4] <= 4.5\ngini = 0.1703\nsamples = 7588\nvalue = [6875, 713]"] ;
0 -> 220 [labeldistance=2.5, labelangle=-45, headlabel="False"] ;
221 [label="X[3] <= 290.5\ngini = 0.0255\nsamples = 6205\nvalue = [6125, 80]"] ;
220 -> 221 ;
222 [label="X[2] <= 6.5\ngini = 0.0236\nsamples = 6199\nvalue = [6125, 74]"] ;
221 -> 222 ;
223 [label="X[2] <= 5.5\ngini = 0.0227\nsamples = 6196\nvalue = [6125, 71]"] ;
222 -> 223 ;
224 [label="X[4] <= 3.5\ngini = 0.0198\nsamples = 6090\nvalue = [6029, 61]"] ;
223 -> 224 ;
225 [label="X[2] <= 2.5\ngini = 0.0124\nsamples = 5145\nvalue = [5113, 32]"] ;
224 -> 225 ;
226 [label="X[0] <= 0.485\ngini = 0.0647\nsamples = 299\nvalue = [289, 10]"] ;
225 -> 226 ;
227 [label="X[3] <= 188.5\ngini = 0.3047\nsamples = 16\nvalue = [13, 3]"] ;
226 -> 227 ;
228 [label="gini = 0.0\nsamples = 13\nvalue = [13, 0]"] ;
227 -> 228 ;
229 [label="gini = 0.0\nsamples = 3\nvalue = [0, 3]"] ;
227 -> 229 ;
230 [label="X[3] <= 252.5\ngini = 0.0482\nsamples = 283\nvalue = [276, 7]"] ;
226 -> 230 ;
231 [label="X[1] <= 0.855\ngini = 0.0172\nsamples = 231\nvalue = [229, 2]"] ;
230 -> 231 ;
232 [label="gini = 0.0\nsamples = 182\nvalue = [182, 0]"] ;
231 -> 232 ;
233 [label="X[1] <= 0.87\ngini = 0.0783\nsamples = 49\nvalue = [47, 2]"] ;
231 -> 233 ;
234 [label="X[13] <= 0.5\ngini = 0.5\nsamples = 2\nvalue = [1, 1]"] ;
233 -> 234 ;
235 [label="gini = 0.0\nsamples = 1\nvalue = [0, 1]"] ;
234 -> 235 ;
236 [label="gini = 0.0\nsamples = 1\nvalue = [1, 0]"] ;
234 -> 236 ;
237 [label="X[0] <= 0.845\ngini = 0.0416\nsamples = 47\nvalue = [46, 1]"] ;
233 -> 237 ;
238 [label="gini = 0.0\nsamples = 35\nvalue = [35, 0]"] ;
237 -> 238 ;
239 [label="X[0] <= 0.86\ngini = 0.1528\nsamples = 12\nvalue = [11, 1]"] ;
237 -> 239 ;
240 [label="gini = 0.0\nsamples = 1\nvalue = [0, 1]"] ;
239 -> 240 ;
241 [label="gini = 0.0\nsamples = 11\nvalue = [11, 0]"] ;
239 -> 241 ;
242 [label="X[3] <= 253.5\ngini = 0.1738\nsamples = 52\nvalue = [47, 5]"] ;
230 -> 242 ;
243 [label="gini = 0.0\nsamples = 2\nvalue = [0, 2]"] ;
242 -> 243 ;
244 [label="X[6] <= 0.5\ngini = 0.1128\nsamples = 50\nvalue = [47, 3]"] ;
242 -> 244 ;
245 [label="X[15] <= 0.5\ngini = 0.0425\nsamples = 46\nvalue = [45, 1]"] ;
244 -> 245 ;
246 [label="gini = 0.0\nsamples = 41\nvalue = [41, 0]"] ;
245 -> 246 ;
247 [label="X[3] <= 259.5\ngini = 0.32\nsamples = 5\nvalue = [4, 1]"] ;
245 -> 247 ;
248 [label="gini = 0.0\nsamples = 1\nvalue = [0, 1]"] ;
247 -> 248 ;
249 [label="gini = 0.0\nsamples = 4\nvalue = [4, 0]"] ;
247 -> 249 ;
250 [label="X[3] <= 275.0\ngini = 0.5\nsamples = 4\nvalue = [2, 2]"] ;
244 -> 250 ;
251 [label="gini = 0.0\nsamples = 2\nvalue = [2, 0]"] ;
250 -> 251 ;
252 [label="gini = 0.0\nsamples = 2\nvalue = [0, 2]"] ;
250 -> 252 ;
253 [label="X[13] <= 0.5\ngini = 0.009\nsamples = 4846\nvalue = [4824, 22]"] ;
225 -> 253 ;
254 [label="X[9] <= 0.5\ngini = 0.0062\nsamples = 3560\nvalue = [3549, 11]"] ;
253 -> 254 ;
255 [label="X[4] <= 2.5\ngini = 0.0048\nsamples = 3319\nvalue = [3311, 8]"] ;
254 -> 255 ;
256 [label="X[18] <= 0.5\ngini = 0.0111\nsamples = 1253\nvalue = [1246, 7]"] ;
255 -> 256 ;
257 [label="gini = 0.0\nsamples = 691\nvalue = [691, 0]"] ;
256 -> 257 ;
258 [label="X[0] <= 0.845\ngini = 0.0246\nsamples = 562\nvalue = [555, 7]"] ;
256 -> 258 ;
259 [label="X[1] <= 0.855\ngini = 0.0099\nsamples = 401\nvalue = [399, 2]"] ;
258 -> 259 ;
260 [label="gini = 0.0\nsamples = 289\nvalue = [289, 0]"] ;
259 -> 260 ;
261 [label="X[1] <= 0.865\ngini = 0.0351\nsamples = 112\nvalue = [110, 2]"] ;
259 -> 261 ;
262 [label="X[6] <= 0.5\ngini = 0.18\nsamples = 10\nvalue = [9, 1]"] ;
261 -> 262 ;
263 [label="gini = 0.0\nsamples = 9\nvalue = [9, 0]"] ;
262 -> 263 ;
264 [label="gini = 0.0\nsamples = 1\nvalue = [0, 1]"] ;
262 -> 264 ;
265 [label="X[14] <= 0.5\ngini = 0.0194\nsamples = 102\nvalue = [101, 1]"] ;
261 -> 265 ;
266 [label="gini = 0.0\nsamples = 76\nvalue = [76, 0]"] ;
265 -> 266 ;
267 [label="X[2] <= 3.5\ngini = 0.074\nsamples = 26\nvalue = [25, 1]"] ;
265 -> 267 ;
268 [label="X[0] <= 0.595\ngini = 0.1975\nsamples = 9\nvalue = [8, 1]"] ;
267 -> 268 ;
269 [label="gini = 0.0\nsamples = 6\nvalue = [6, 0]"] ;
268 -> 269 ;
270 [label="X[1] <= 0.945\ngini = 0.4444\nsamples = 3\nvalue = [2, 1]"] ;
268 -> 270 ;
271 [label="gini = 0.0\nsamples = 1\nvalue = [0, 1]"] ;
270 -> 271 ;
272 [label="gini = 0.0\nsamples = 2\nvalue = [2, 0]"] ;
270 -> 272 ;
273 [label="gini = 0.0\nsamples = 17\nvalue = [17, 0]"] ;
267 -> 273 ;
274 [label="X[0] <= 0.865\ngini = 0.0602\nsamples = 161\nvalue = [156, 5]"] ;
258 -> 274 ;
275 [label="X[3] <= 223.5\ngini = 0.2778\nsamples = 24\nvalue = [20, 4]"] ;
274 -> 275 ;
276 [label="gini = 0.0\nsamples = 12\nvalue = [12, 0]"] ;
275 -> 276 ;
277 [label="X[1] <= 0.705\ngini = 0.4444\nsamples = 12\nvalue = [8, 4]"] ;
275 -> 277 ;
278 [label="X[3] <= 267.5\ngini = 0.4444\nsamples = 6\nvalue = [2, 4]"] ;
277 -> 278 ;
279 [label="X[1] <= 0.535\ngini = 0.32\nsamples = 5\nvalue = [1, 4]"] ;
278 -> 279 ;
280 [label="gini = 0.0\nsamples = 1\nvalue = [1, 0]"] ;
279 -> 280 ;
281 [label="gini = 0.0\nsamples = 4\nvalue = [0, 4]"] ;
279 -> 281 ;
282 [label="gini = 0.0\nsamples = 1\nvalue = [1, 0]"] ;
278 -> 282 ;
283 [label="gini = 0.0\nsamples = 6\nvalue = [6, 0]"] ;
277 -> 283 ;
284 [label="X[3] <= 149.5\ngini = 0.0145\nsamples = 137\nvalue = [136, 1]"] ;
274 -> 284 ;
285 [label="X[3] <= 147.0\ngini = 0.0907\nsamples = 21\nvalue = [20, 1]"] ;
284 -> 285 ;
286 [label="gini = 0.0\nsamples = 19\nvalue = [19, 0]"] ;
285 -> 286 ;
287 [label="X[0] <= 0.88\ngini = 0.5\nsamples = 2\nvalue = [1, 1]"] ;
285 -> 287 ;
288 [label="gini = 0.0\nsamples = 1\nvalue = [1, 0]"] ;
287 -> 288 ;
289 [label="gini = 0.0\nsamples = 1\nvalue = [0, 1]"] ;
287 -> 289 ;
290 [label="gini = 0.0\nsamples = 116\nvalue = [116, 0]"] ;
284 -> 290 ;
291 [label="X[0] <= 0.495\ngini = 0.001\nsamples = 2066\nvalue = [2065, 1]"] ;
255 -> 291 ;
292 [label="X[14] <= 0.5\ngini = 0.0256\nsamples = 77\nvalue = [76, 1]"] ;
291 -> 292 ;
293 [label="gini = 0.0\nsamples = 57\nvalue = [57, 0]"] ;
292 -> 293 ;
294 [label="X[1] <= 0.7\ngini = 0.095\nsamples = 20\nvalue = [19, 1]"] ;
292 -> 294 ;
295 [label="gini = 0.0\nsamples = 15\nvalue = [15, 0]"] ;
294 -> 295 ;
296 [label="X[1] <= 0.75\ngini = 0.32\nsamples = 5\nvalue = [4, 1]"] ;
294 -> 296 ;
297 [label="gini = 0.0\nsamples = 1\nvalue = [0, 1]"] ;
296 -> 297 ;
298 [label="gini = 0.0\nsamples = 4\nvalue = [4, 0]"] ;
296 -> 298 ;
299 [label="gini = 0.0\nsamples = 1989\nvalue = [1989, 0]"] ;
291 -> 299 ;
300 [label="X[0] <= 0.635\ngini = 0.0246\nsamples = 241\nvalue = [238, 3]"] ;
254 -> 300 ;
301 [label="X[0] <= 0.575\ngini = 0.0799\nsamples = 72\nvalue = [69, 3]"] ;
300 -> 301 ;
302 [label="gini = 0.0\nsamples = 43\nvalue = [43, 0]"] ;
301 -> 302 ;
303 [label="X[0] <= 0.585\ngini = 0.1855\nsamples = 29\nvalue = [26, 3]"] ;
301 -> 303 ;
304 [label="X[3] <= 217.0\ngini = 0.4444\nsamples = 6\nvalue = [4, 2]"] ;
303 -> 304 ;
305 [label="gini = 0.0\nsamples = 4\nvalue = [4, 0]"] ;
304 -> 305 ;
306 [label="gini = 0.0\nsamples = 2\nvalue = [0, 2]"] ;
304 -> 306 ;
307 [label="X[1] <= 0.925\ngini = 0.0832\nsamples = 23\nvalue = [22, 1]"] ;
303 -> 307 ;
308 [label="gini = 0.0\nsamples = 19\nvalue = [19, 0]"] ;
307 -> 308 ;
309 [label="X[1] <= 0.94\ngini = 0.375\nsamples = 4\nvalue = [3, 1]"] ;
307 -> 309 ;
310 [label="gini = 0.0\nsamples = 1\nvalue = [0, 1]"] ;
309 -> 310 ;
311 [label="gini = 0.0\nsamples = 3\nvalue = [3, 0]"] ;
309 -> 311 ;
312 [label="gini = 0.0\nsamples = 169\nvalue = [169, 0]"] ;
300 -> 312 ;
313 [label="X[1] <= 0.995\ngini = 0.017\nsamples = 1286\nvalue = [1275, 11]"] ;
253 -> 313 ;
314 [label="X[0] <= 0.805\ngini = 0.0156\nsamples = 1275\nvalue = [1265, 10]"] ;
313 -> 314 ;
315 [label="X[0] <= 0.775\ngini = 0.0239\nsamples = 827\nvalue = [817, 10]"] ;
314 -> 315 ;
316 [label="X[0] <= 0.485\ngini = 0.0135\nsamples = 738\nvalue = [733, 5]"] ;
315 -> 316 ;
317 [label="X[3] <= 237.5\ngini = 0.1049\nsamples = 18\nvalue = [17, 1]"] ;
316 -> 317 ;
318 [label="gini = 0.0\nsamples = 17\nvalue = [17, 0]"] ;
317 -> 318 ;
319 [label="gini = 0.0\nsamples = 1\nvalue = [0, 1]"] ;
317 -> 319 ;
320 [label="X[0] <= 0.565\ngini = 0.011\nsamples = 720\nvalue = [716, 4]"] ;
316 -> 320 ;
321 [label="X[0] <= 0.535\ngini = 0.0295\nsamples = 200\nvalue = [197, 3]"] ;
320 -> 321 ;
322 [label="gini = 0.0\nsamples = 133\nvalue = [133, 0]"] ;
321 -> 322 ;
323 [label="X[4] <= 2.5\ngini = 0.0855\nsamples = 67\nvalue = [64, 3]"] ;
321 -> 323 ;
324 [label="X[1] <= 0.735\ngini = 0.2112\nsamples = 25\nvalue = [22, 3]"] ;
323 -> 324 ;
325 [label="gini = 0.0\nsamples = 17\nvalue = [17, 0]"] ;
324 -> 325 ;
326 [label="X[1] <= 0.79\ngini = 0.4688\nsamples = 8\nvalue = [5, 3]"] ;
324 -> 326 ;
327 [label="gini = 0.0\nsamples = 3\nvalue = [0, 3]"] ;
326 -> 327 ;
328 [label="gini = 0.0\nsamples = 5\nvalue = [5, 0]"] ;
326 -> 328 ;
329 [label="gini = 0.0\nsamples = 42\nvalue = [42, 0]"] ;
323 -> 329 ;
330 [label="X[1] <= 0.545\ngini = 0.0038\nsamples = 520\nvalue = [519, 1]"] ;
320 -> 330 ;
331 [label="X[1] <= 0.535\ngini = 0.0222\nsamples = 89\nvalue = [88, 1]"] ;
330 -> 331 ;
332 [label="gini = 0.0\nsamples = 82\nvalue = [82, 0]"] ;
331 -> 332 ;
333 [label="X[3] <= 213.0\ngini = 0.2449\nsamples = 7\nvalue = [6, 1]"] ;
331 -> 333 ;
334 [label="gini = 0.0\nsamples = 5\nvalue = [5, 0]"] ;
333 -> 334 ;
335 [label="X[3] <= 221.0\ngini = 0.5\nsamples = 2\nvalue = [1, 1]"] ;
333 -> 335 ;
336 [label="gini = 0.0\nsamples = 1\nvalue = [0, 1]"] ;
335 -> 336 ;
337 [label="gini = 0.0\nsamples = 1\nvalue = [1, 0]"] ;
335 -> 337 ;
338 [label="gini = 0.0\nsamples = 431\nvalue = [431, 0]"] ;
330 -> 338 ;
339 [label="X[1] <= 0.465\ngini = 0.106\nsamples = 89\nvalue = [84, 5]"] ;
315 -> 339 ;
340 [label="gini = 0.0\nsamples = 1\nvalue = [0, 1]"] ;
339 -> 340 ;
341 [label="X[2] <= 3.5\ngini = 0.0868\nsamples = 88\nvalue = [84, 4]"] ;
339 -> 341 ;
342 [label="X[1] <= 0.655\ngini = 0.2311\nsamples = 30\nvalue = [26, 4]"] ;
341 -> 342 ;
343 [label="gini = 0.0\nsamples = 15\nvalue = [15, 0]"] ;
342 -> 343 ;
344 [label="X[1] <= 0.755\ngini = 0.3911\nsamples = 15\nvalue = [11, 4]"] ;
342 -> 344 ;
345 [label="gini = 0.0\nsamples = 3\nvalue = [0, 3]"] ;
344 -> 345 ;
346 [label="X[1] <= 0.82\ngini = 0.1528\nsamples = 12\nvalue = [11, 1]"] ;
344 -> 346 ;
347 [label="X[0] <= 0.785\ngini = 0.4444\nsamples = 3\nvalue = [2, 1]"] ;
346 -> 347 ;
348 [label="gini = 0.0\nsamples = 1\nvalue = [0, 1]"] ;
347 -> 348 ;
349 [label="gini = 0.0\nsamples = 2\nvalue = [2, 0]"] ;
347 -> 349 ;
350 [label="gini = 0.0\nsamples = 9\nvalue = [9, 0]"] ;
346 -> 350 ;
351 [label="gini = 0.0\nsamples = 58\nvalue = [58, 0]"] ;
341 -> 351 ;
352 [label="gini = 0.0\nsamples = 448\nvalue = [448, 0]"] ;
314 -> 352 ;
353 [label="X[3] <= 179.5\ngini = 0.1653\nsamples = 11\nvalue = [10, 1]"] ;
313 -> 353 ;
354 [label="X[3] <= 157.5\ngini = 0.375\nsamples = 4\nvalue = [3, 1]"] ;
353 -> 354 ;
355 [label="gini = 0.0\nsamples = 3\nvalue = [3, 0]"] ;
354 -> 355 ;
356 [label="gini = 0.0\nsamples = 1\nvalue = [0, 1]"] ;
354 -> 356 ;
357 [label="gini = 0.0\nsamples = 7\nvalue = [7, 0]"] ;
353 -> 357 ;
358 [label="X[15] <= 0.5\ngini = 0.0595\nsamples = 945\nvalue = [916, 29]"] ;
224 -> 358 ;
359 [label="X[9] <= 0.5\ngini = 0.0429\nsamples = 776\nvalue = [759, 17]"] ;
358 -> 359 ;
360 [label="X[0] <= 0.475\ngini = 0.0325\nsamples = 726\nvalue = [714, 12]"] ;
359 -> 360 ;
361 [label="X[3] <= 182.5\ngini = 0.4444\nsamples = 3\nvalue = [2, 1]"] ;
360 -> 361 ;
362 [label="gini = 0.0\nsamples = 2\nvalue = [2, 0]"] ;
361 -> 362 ;
363 [label="gini = 0.0\nsamples = 1\nvalue = [0, 1]"] ;
361 -> 363 ;
364 [label="X[3] <= 273.5\ngini = 0.03\nsamples = 723\nvalue = [712, 11]"] ;
360 -> 364 ;
365 [label="X[14] <= 0.5\ngini = 0.0226\nsamples = 699\nvalue = [691, 8]"] ;
364 -> 365 ;
366 [label="X[3] <= 156.5\ngini = 0.0106\nsamples = 563\nvalue = [560, 3]"] ;
365 -> 366 ;
367 [label="X[3] <= 149.5\ngini = 0.0476\nsamples = 123\nvalue = [120, 3]"] ;
366 -> 367 ;
368 [label="gini = 0.0\nsamples = 95\nvalue = [95, 0]"] ;
367 -> 368 ;
369 [label="X[1] <= 0.915\ngini = 0.1913\nsamples = 28\nvalue = [25, 3]"] ;
367 -> 369 ;
370 [label="X[3] <= 150.5\ngini = 0.074\nsamples = 26\nvalue = [25, 1]"] ;
369 -> 370 ;
371 [label="X[13] <= 0.5\ngini = 0.4444\nsamples = 3\nvalue = [2, 1]"] ;
370 -> 371 ;
372 [label="gini = 0.0\nsamples = 1\nvalue = [0, 1]"] ;
371 -> 372 ;
373 [label="gini = 0.0\nsamples = 2\nvalue = [2, 0]"] ;
371 -> 373 ;
374 [label="gini = 0.0\nsamples = 23\nvalue = [23, 0]"] ;
370 -> 374 ;
375 [label="gini = 0.0\nsamples = 2\nvalue = [0, 2]"] ;
369 -> 375 ;
376 [label="gini = 0.0\nsamples = 440\nvalue = [440, 0]"] ;
366 -> 376 ;
377 [label="X[5] <= 0.5\ngini = 0.0708\nsamples = 136\nvalue = [131, 5]"] ;
365 -> 377 ;
378 [label="X[0] <= 0.505\ngini = 0.0171\nsamples = 116\nvalue = [115, 1]"] ;
377 -> 378 ;
379 [label="X[2] <= 4.5\ngini = 0.2449\nsamples = 7\nvalue = [6, 1]"] ;
378 -> 379 ;
380 [label="gini = 0.0\nsamples = 5\nvalue = [5, 0]"] ;
379 -> 380 ;
381 [label="X[3] <= 162.0\ngini = 0.5\nsamples = 2\nvalue = [1, 1]"] ;
379 -> 381 ;
382 [label="gini = 0.0\nsamples = 1\nvalue = [0, 1]"] ;
381 -> 382 ;
383 [label="gini = 0.0\nsamples = 1\nvalue = [1, 0]"] ;
381 -> 383 ;
384 [label="gini = 0.0\nsamples = 109\nvalue = [109, 0]"] ;
378 -> 384 ;
385 [label="X[3] <= 231.0\ngini = 0.32\nsamples = 20\nvalue = [16, 4]"] ;
377 -> 385 ;
386 [label="X[3] <= 136.5\ngini = 0.1172\nsamples = 16\nvalue = [15, 1]"] ;
385 -> 386 ;
387 [label="X[3] <= 115.5\ngini = 0.5\nsamples = 2\nvalue = [1, 1]"] ;
386 -> 387 ;
388 [label="gini = 0.0\nsamples = 1\nvalue = [1, 0]"] ;
387 -> 388 ;
389 [label="gini = 0.0\nsamples = 1\nvalue = [0, 1]"] ;
387 -> 389 ;
390 [label="gini = 0.0\nsamples = 14\nvalue = [14, 0]"] ;
386 -> 390 ;
391 [label="X[2] <= 3.5\ngini = 0.375\nsamples = 4\nvalue = [1, 3]"] ;
385 -> 391 ;
392 [label="gini = 0.0\nsamples = 1\nvalue = [1, 0]"] ;
391 -> 392 ;
393 [label="gini = 0.0\nsamples = 3\nvalue = [0, 3]"] ;
391 -> 393 ;
394 [label="X[2] <= 2.5\ngini = 0.2188\nsamples = 24\nvalue = [21, 3]"] ;
364 -> 394 ;
395 [label="X[1] <= 0.575\ngini = 0.5\nsamples = 6\nvalue = [3, 3]"] ;
394 -> 395 ;
396 [label="gini = 0.0\nsamples = 3\nvalue = [0, 3]"] ;
395 -> 396 ;
397 [label="gini = 0.0\nsamples = 3\nvalue = [3, 0]"] ;
395 -> 397 ;
398 [label="gini = 0.0\nsamples = 18\nvalue = [18, 0]"] ;
394 -> 398 ;
399 [label="X[1] <= 0.855\ngini = 0.18\nsamples = 50\nvalue = [45, 5]"] ;
359 -> 399 ;
400 [label="gini = 0.0\nsamples = 30\nvalue = [30, 0]"] ;
399 -> 400 ;
401 [label="X[1] <= 0.885\ngini = 0.375\nsamples = 20\nvalue = [15, 5]"] ;
399 -> 401 ;
402 [label="X[2] <= 3.5\ngini = 0.4938\nsamples = 9\nvalue = [4, 5]"] ;
401 -> 402 ;
403 [label="X[3] <= 178.5\ngini = 0.4444\nsamples = 6\nvalue = [4, 2]"] ;
402 -> 403 ;
404 [label="gini = 0.0\nsamples = 2\nvalue = [0, 2]"] ;
403 -> 404 ;
405 [label="gini = 0.0\nsamples = 4\nvalue = [4, 0]"] ;
403 -> 405 ;
406 [label="gini = 0.0\nsamples = 3\nvalue = [0, 3]"] ;
402 -> 406 ;
407 [label="gini = 0.0\nsamples = 11\nvalue = [11, 0]"] ;
401 -> 407 ;
408 [label="X[0] <= 0.555\ngini = 0.1319\nsamples = 169\nvalue = [157, 12]"] ;
358 -> 408 ;
409 [label="X[18] <= 0.5\ngini = 0.3018\nsamples = 27\nvalue = [22, 5]"] ;
408 -> 409 ;
410 [label="gini = 0.0\nsamples = 15\nvalue = [15, 0]"] ;
409 -> 410 ;
411 [label="X[0] <= 0.545\ngini = 0.4861\nsamples = 12\nvalue = [7, 5]"] ;
409 -> 411 ;
412 [label="X[3] <= 247.0\ngini = 0.375\nsamples = 8\nvalue = [6, 2]"] ;
411 -> 412 ;
413 [label="gini = 0.0\nsamples = 5\nvalue = [5, 0]"] ;
412 -> 413 ;
414 [label="X[1] <= 0.82\ngini = 0.4444\nsamples = 3\nvalue = [1, 2]"] ;
412 -> 414 ;
415 [label="gini = 0.0\nsamples = 1\nvalue = [1, 0]"] ;
414 -> 415 ;
416 [label="gini = 0.0\nsamples = 2\nvalue = [0, 2]"] ;
414 -> 416 ;
417 [label="X[3] <= 214.5\ngini = 0.375\nsamples = 4\nvalue = [1, 3]"] ;
411 -> 417 ;
418 [label="gini = 0.0\nsamples = 3\nvalue = [0, 3]"] ;
417 -> 418 ;
419 [label="gini = 0.0\nsamples = 1\nvalue = [1, 0]"] ;
417 -> 419 ;
420 [label="X[17] <= 0.5\ngini = 0.0937\nsamples = 142\nvalue = [135, 7]"] ;
408 -> 420 ;
421 [label="gini = 0.0\nsamples = 67\nvalue = [67, 0]"] ;
420 -> 421 ;
422 [label="X[3] <= 184.0\ngini = 0.1692\nsamples = 75\nvalue = [68, 7]"] ;
420 -> 422 ;
423 [label="X[3] <= 181.5\ngini = 0.2854\nsamples = 29\nvalue = [24, 5]"] ;
422 -> 423 ;
424 [label="X[1] <= 0.91\ngini = 0.142\nsamples = 26\nvalue = [24, 2]"] ;
423 -> 424 ;
425 [label="gini = 0.0\nsamples = 23\nvalue = [23, 0]"] ;
424 -> 425 ;
426 [label="X[0] <= 0.725\ngini = 0.4444\nsamples = 3\nvalue = [1, 2]"] ;
424 -> 426 ;
427 [label="gini = 0.0\nsamples = 1\nvalue = [1, 0]"] ;
426 -> 427 ;
428 [label="gini = 0.0\nsamples = 2\nvalue = [0, 2]"] ;
426 -> 428 ;
429 [label="gini = 0.0\nsamples = 3\nvalue = [0, 3]"] ;
423 -> 429 ;
430 [label="X[0] <= 0.615\ngini = 0.0832\nsamples = 46\nvalue = [44, 2]"] ;
422 -> 430 ;
431 [label="X[0] <= 0.605\ngini = 0.375\nsamples = 4\nvalue = [3, 1]"] ;
430 -> 431 ;
432 [label="gini = 0.0\nsamples = 3\nvalue = [3, 0]"] ;
431 -> 432 ;
433 [label="gini = 0.0\nsamples = 1\nvalue = [0, 1]"] ;
431 -> 433 ;
434 [label="X[0] <= 0.895\ngini = 0.0465\nsamples = 42\nvalue = [41, 1]"] ;
430 -> 434 ;
435 [label="gini = 0.0\nsamples = 32\nvalue = [32, 0]"] ;
434 -> 435 ;
436 [label="X[2] <= 4.5\ngini = 0.18\nsamples = 10\nvalue = [9, 1]"] ;
434 -> 436 ;
437 [label="gini = 0.0\nsamples = 8\nvalue = [8, 0]"] ;
436 -> 437 ;
438 [label="X[3] <= 201.5\ngini = 0.5\nsamples = 2\nvalue = [1, 1]"] ;
436 -> 438 ;
439 [label="gini = 0.0\nsamples = 1\nvalue = [1, 0]"] ;
438 -> 439 ;
440 [label="gini = 0.0\nsamples = 1\nvalue = [0, 1]"] ;
438 -> 440 ;
441 [label="X[1] <= 0.895\ngini = 0.1709\nsamples = 106\nvalue = [96, 10]"] ;
223 -> 441 ;
442 [label="X[1] <= 0.625\ngini = 0.0917\nsamples = 83\nvalue = [79, 4]"] ;
441 -> 442 ;
443 [label="gini = 0.0\nsamples = 44\nvalue = [44, 0]"] ;
442 -> 443 ;
444 [label="X[1] <= 0.635\ngini = 0.1841\nsamples = 39\nvalue = [35, 4]"] ;
442 -> 444 ;
445 [label="gini = 0.0\nsamples = 1\nvalue = [0, 1]"] ;
444 -> 445 ;
446 [label="X[3] <= 162.0\ngini = 0.1454\nsamples = 38\nvalue = [35, 3]"] ;
444 -> 446 ;
447 [label="X[3] <= 156.5\ngini = 0.32\nsamples = 15\nvalue = [12, 3]"] ;
446 -> 447 ;
448 [label="X[0] <= 0.725\ngini = 0.142\nsamples = 13\nvalue = [12, 1]"] ;
447 -> 448 ;
449 [label="gini = 0.0\nsamples = 9\nvalue = [9, 0]"] ;
448 -> 449 ;
450 [label="X[3] <= 137.0\ngini = 0.375\nsamples = 4\nvalue = [3, 1]"] ;
448 -> 450 ;
451 [label="gini = 0.0\nsamples = 1\nvalue = [0, 1]"] ;
450 -> 451 ;
452 [label="gini = 0.0\nsamples = 3\nvalue = [3, 0]"] ;
450 -> 452 ;
453 [label="gini = 0.0\nsamples = 2\nvalue = [0, 2]"] ;
447 -> 453 ;
454 [label="gini = 0.0\nsamples = 23\nvalue = [23, 0]"] ;
446 -> 454 ;
455 [label="X[18] <= 0.5\ngini = 0.3856\nsamples = 23\nvalue = [17, 6]"] ;
441 -> 455 ;
456 [label="X[13] <= 0.5\ngini = 0.5\nsamples = 12\nvalue = [6, 6]"] ;
455 -> 456 ;
457 [label="X[3] <= 245.0\ngini = 0.375\nsamples = 8\nvalue = [6, 2]"] ;
456 -> 457 ;
458 [label="X[11] <= 0.5\ngini = 0.2449\nsamples = 7\nvalue = [6, 1]"] ;
457 -> 458 ;
459 [label="gini = 0.0\nsamples = 6\nvalue = [6, 0]"] ;
458 -> 459 ;
460 [label="gini = 0.0\nsamples = 1\nvalue = [0, 1]"] ;
458 -> 460 ;
461 [label="gini = 0.0\nsamples = 1\nvalue = [0, 1]"] ;
457 -> 461 ;
462 [label="gini = 0.0\nsamples = 4\nvalue = [0, 4]"] ;
456 -> 462 ;
463 [label="gini = 0.0\nsamples = 11\nvalue = [11, 0]"] ;
455 -> 463 ;
464 [label="gini = 0.0\nsamples = 3\nvalue = [0, 3]"] ;
222 -> 464 ;
465 [label="gini = 0.0\nsamples = 6\nvalue = [0, 6]"] ;
221 -> 465 ;
466 [label="X[1] <= 0.815\ngini = 0.4964\nsamples = 1383\nvalue = [750, 633]"] ;
220 -> 466 ;
467 [label="X[3] <= 272.5\ngini = 0.0892\nsamples = 534\nvalue = [509, 25]"] ;
466 -> 467 ;
468 [label="X[4] <= 5.5\ngini = 0.0717\nsamples = 510\nvalue = [491, 19]"] ;
467 -> 468 ;
469 [label="X[1] <= 0.805\ngini = 0.1761\nsamples = 164\nvalue = [148, 16]"] ;
468 -> 469 ;
470 [label="X[16] <= 0.5\ngini = 0.1502\nsamples = 159\nvalue = [146, 13]"] ;
469 -> 470 ;
471 [label="X[11] <= 0.5\ngini = 0.0956\nsamples = 139\nvalue = [132, 7]"] ;
470 -> 471 ;
472 [label="X[3] <= 157.0\ngini = 0.0745\nsamples = 129\nvalue = [124, 5]"] ;
471 -> 472 ;
473 [label="gini = 0.0\nsamples = 43\nvalue = [43, 0]"] ;
472 -> 473 ;
474 [label="X[3] <= 180.5\ngini = 0.1095\nsamples = 86\nvalue = [81, 5]"] ;
472 -> 474 ;
475 [label="X[1] <= 0.635\ngini = 0.3599\nsamples = 17\nvalue = [13, 4]"] ;
474 -> 475 ;
476 [label="X[1] <= 0.605\ngini = 0.48\nsamples = 10\nvalue = [6, 4]"] ;
475 -> 476 ;
477 [label="X[8] <= 0.5\ngini = 0.375\nsamples = 8\nvalue = [6, 2]"] ;
476 -> 477 ;
478 [label="X[6] <= 0.5\ngini = 0.2449\nsamples = 7\nvalue = [6, 1]"] ;
477 -> 478 ;
479 [label="gini = 0.0\nsamples = 5\nvalue = [5, 0]"] ;
478 -> 479 ;
480 [label="X[3] <= 164.5\ngini = 0.5\nsamples = 2\nvalue = [1, 1]"] ;
478 -> 480 ;
481 [label="gini = 0.0\nsamples = 1\nvalue = [1, 0]"] ;
480 -> 481 ;
482 [label="gini = 0.0\nsamples = 1\nvalue = [0, 1]"] ;
480 -> 482 ;
483 [label="gini = 0.0\nsamples = 1\nvalue = [0, 1]"] ;
477 -> 483 ;
484 [label="gini = 0.0\nsamples = 2\nvalue = [0, 2]"] ;
476 -> 484 ;
485 [label="gini = 0.0\nsamples = 7\nvalue = [7, 0]"] ;
475 -> 485 ;
486 [label="X[1] <= 0.775\ngini = 0.0286\nsamples = 69\nvalue = [68, 1]"] ;
474 -> 486 ;
487 [label="gini = 0.0\nsamples = 62\nvalue = [62, 0]"] ;
486 -> 487 ;
488 [label="X[3] <= 257.0\ngini = 0.2449\nsamples = 7\nvalue = [6, 1]"] ;
486 -> 488 ;
489 [label="gini = 0.0\nsamples = 6\nvalue = [6, 0]"] ;
488 -> 489 ;
490 [label="gini = 0.0\nsamples = 1\nvalue = [0, 1]"] ;
488 -> 490 ;
491 [label="X[3] <= 229.0\ngini = 0.32\nsamples = 10\nvalue = [8, 2]"] ;
471 -> 491 ;
492 [label="gini = 0.0\nsamples = 7\nvalue = [7, 0]"] ;
491 -> 492 ;
493 [label="X[18] <= 0.5\ngini = 0.4444\nsamples = 3\nvalue = [1, 2]"] ;
491 -> 493 ;
494 [label="gini = 0.0\nsamples = 1\nvalue = [1, 0]"] ;
493 -> 494 ;
495 [label="gini = 0.0\nsamples = 2\nvalue = [0, 2]"] ;
493 -> 495 ;
496 [label="X[15] <= 0.5\ngini = 0.42\nsamples = 20\nvalue = [14, 6]"] ;
470 -> 496 ;
497 [label="gini = 0.0\nsamples = 12\nvalue = [12, 0]"] ;
496 -> 497 ;
498 [label="X[0] <= 0.82\ngini = 0.375\nsamples = 8\nvalue = [2, 6]"] ;
496 -> 498 ;
499 [label="gini = 0.0\nsamples = 6\nvalue = [0, 6]"] ;
498 -> 499 ;
500 [label="gini = 0.0\nsamples = 2\nvalue = [2, 0]"] ;
498 -> 500 ;
501 [label="X[8] <= 0.5\ngini = 0.48\nsamples = 5\nvalue = [2, 3]"] ;
469 -> 501 ;
502 [label="X[3] <= 206.0\ngini = 0.375\nsamples = 4\nvalue = [1, 3]"] ;
501 -> 502 ;
503 [label="gini = 0.0\nsamples = 1\nvalue = [1, 0]"] ;
502 -> 503 ;
504 [label="gini = 0.0\nsamples = 3\nvalue = [0, 3]"] ;
502 -> 504 ;
505 [label="gini = 0.0\nsamples = 1\nvalue = [1, 0]"] ;
501 -> 505 ;
506 [label="X[14] <= 0.5\ngini = 0.0172\nsamples = 346\nvalue = [343, 3]"] ;
468 -> 506 ;
507 [label="X[3] <= 132.5\ngini = 0.0062\nsamples = 319\nvalue = [318, 1]"] ;
506 -> 507 ;
508 [label="X[6] <= 0.5\ngini = 0.0624\nsamples = 31\nvalue = [30, 1]"] ;
507 -> 508 ;
509 [label="gini = 0.0\nsamples = 30\nvalue = [30, 0]"] ;
508 -> 509 ;
510 [label="gini = 0.0\nsamples = 1\nvalue = [0, 1]"] ;
508 -> 510 ;
511 [label="gini = 0.0\nsamples = 288\nvalue = [288, 0]"] ;
507 -> 511 ;
512 [label="X[0] <= 0.84\ngini = 0.1372\nsamples = 27\nvalue = [25, 2]"] ;
506 -> 512 ;
513 [label="gini = 0.0\nsamples = 19\nvalue = [19, 0]"] ;
512 -> 513 ;
514 [label="X[0] <= 0.895\ngini = 0.375\nsamples = 8\nvalue = [6, 2]"] ;
512 -> 514 ;
515 [label="gini = 0.0\nsamples = 2\nvalue = [0, 2]"] ;
514 -> 515 ;
516 [label="gini = 0.0\nsamples = 6\nvalue = [6, 0]"] ;
514 -> 516 ;
517 [label="X[0] <= 0.575\ngini = 0.375\nsamples = 24\nvalue = [18, 6]"] ;
467 -> 517 ;
518 [label="X[0] <= 0.56\ngini = 0.48\nsamples = 10\nvalue = [4, 6]"] ;
517 -> 518 ;
519 [label="X[9] <= 0.5\ngini = 0.32\nsamples = 5\nvalue = [4, 1]"] ;
518 -> 519 ;
520 [label="gini = 0.0\nsamples = 3\nvalue = [3, 0]"] ;
519 -> 520 ;
521 [label="X[5] <= 0.5\ngini = 0.5\nsamples = 2\nvalue = [1, 1]"] ;
519 -> 521 ;
522 [label="gini = 0.0\nsamples = 1\nvalue = [0, 1]"] ;
521 -> 522 ;
523 [label="gini = 0.0\nsamples = 1\nvalue = [1, 0]"] ;
521 -> 523 ;
524 [label="gini = 0.0\nsamples = 5\nvalue = [0, 5]"] ;
518 -> 524 ;
525 [label="gini = 0.0\nsamples = 14\nvalue = [14, 0]"] ;
517 -> 525 ;
526 [label="X[3] <= 216.5\ngini = 0.4066\nsamples = 849\nvalue = [241, 608]"] ;
466 -> 526 ;
527 [label="X[1] <= 0.995\ngini = 0.1662\nsamples = 164\nvalue = [149, 15]"] ;
526 -> 527 ;
528 [label="X[4] <= 5.5\ngini = 0.1288\nsamples = 159\nvalue = [148, 11]"] ;
527 -> 528 ;
529 [label="X[2] <= 3.5\ngini = 0.3403\nsamples = 46\nvalue = [36, 10]"] ;
528 -> 529 ;
530 [label="X[3] <= 157.0\ngini = 0.4989\nsamples = 21\nvalue = [11, 10]"] ;
529 -> 530 ;
531 [label="X[9] <= 0.5\ngini = 0.1975\nsamples = 9\nvalue = [8, 1]"] ;
530 -> 531 ;
532 [label="gini = 0.0\nsamples = 7\nvalue = [7, 0]"] ;
531 -> 532 ;
533 [label="X[1] <= 0.965\ngini = 0.5\nsamples = 2\nvalue = [1, 1]"] ;
531 -> 533 ;
534 [label="gini = 0.0\nsamples = 1\nvalue = [0, 1]"] ;
533 -> 534 ;
535 [label="gini = 0.0\nsamples = 1\nvalue = [1, 0]"] ;
533 -> 535 ;
536 [label="X[3] <= 186.5\ngini = 0.375\nsamples = 12\nvalue = [3, 9]"] ;
530 -> 536 ;
537 [label="X[15] <= 0.5\ngini = 0.18\nsamples = 10\nvalue = [1, 9]"] ;
536 -> 537 ;
538 [label="gini = 0.0\nsamples = 7\nvalue = [0, 7]"] ;
537 -> 538 ;
539 [label="X[1] <= 0.915\ngini = 0.4444\nsamples = 3\nvalue = [1, 2]"] ;
537 -> 539 ;
540 [label="gini = 0.0\nsamples = 1\nvalue = [1, 0]"] ;
539 -> 540 ;
541 [label="gini = 0.0\nsamples = 2\nvalue = [0, 2]"] ;
539 -> 541 ;
542 [label="gini = 0.0\nsamples = 2\nvalue = [2, 0]"] ;
536 -> 542 ;
543 [label="gini = 0.0\nsamples = 25\nvalue = [25, 0]"] ;
529 -> 543 ;
544 [label="X[2] <= 5.5\ngini = 0.0175\nsamples = 113\nvalue = [112, 1]"] ;
528 -> 544 ;
545 [label="gini = 0.0\nsamples = 111\nvalue = [111, 0]"] ;
544 -> 545 ;
546 [label="X[3] <= 185.5\ngini = 0.5\nsamples = 2\nvalue = [1, 1]"] ;
544 -> 546 ;
547 [label="gini = 0.0\nsamples = 1\nvalue = [0, 1]"] ;
546 -> 547 ;
548 [label="gini = 0.0\nsamples = 1\nvalue = [1, 0]"] ;
546 -> 548 ;
549 [label="X[3] <= 134.5\ngini = 0.32\nsamples = 5\nvalue = [1, 4]"] ;
527 -> 549 ;
550 [label="gini = 0.0\nsamples = 1\nvalue = [1, 0]"] ;
549 -> 550 ;
551 [label="gini = 0.0\nsamples = 4\nvalue = [0, 4]"] ;
549 -> 551 ;
552 [label="X[0] <= 0.715\ngini = 0.2325\nsamples = 685\nvalue = [92, 593]"] ;
526 -> 552 ;
553 [label="X[3] <= 293.5\ngini = 0.2041\nsamples = 52\nvalue = [46, 6]"] ;
552 -> 553 ;
554 [label="X[17] <= 0.5\ngini = 0.1769\nsamples = 51\nvalue = [46, 5]"] ;
553 -> 554 ;
555 [label="X[1] <= 0.995\ngini = 0.0555\nsamples = 35\nvalue = [34, 1]"] ;
554 -> 555 ;
556 [label="gini = 0.0\nsamples = 32\nvalue = [32, 0]"] ;
555 -> 556 ;
557 [label="X[13] <= 0.5\ngini = 0.4444\nsamples = 3\nvalue = [2, 1]"] ;
555 -> 557 ;
558 [label="gini = 0.0\nsamples = 2\nvalue = [2, 0]"] ;
557 -> 558 ;
559 [label="gini = 0.0\nsamples = 1\nvalue = [0, 1]"] ;
557 -> 559 ;
560 [label="X[12] <= 0.5\ngini = 0.375\nsamples = 16\nvalue = [12, 4]"] ;
554 -> 560 ;
561 [label="X[0] <= 0.49\ngini = 0.32\nsamples = 15\nvalue = [12, 3]"] ;
560 -> 561 ;
562 [label="gini = 0.0\nsamples = 1\nvalue = [0, 1]"] ;
561 -> 562 ;
563 [label="X[2] <= 2.5\ngini = 0.2449\nsamples = 14\nvalue = [12, 2]"] ;
561 -> 563 ;
564 [label="gini = 0.0\nsamples = 1\nvalue = [0, 1]"] ;
563 -> 564 ;
565 [label="X[1] <= 0.835\ngini = 0.142\nsamples = 13\nvalue = [12, 1]"] ;
563 -> 565 ;
566 [label="X[3] <= 255.5\ngini = 0.5\nsamples = 2\nvalue = [1, 1]"] ;
565 -> 566 ;
567 [label="gini = 0.0\nsamples = 1\nvalue = [0, 1]"] ;
566 -> 567 ;
568 [label="gini = 0.0\nsamples = 1\nvalue = [1, 0]"] ;
566 -> 568 ;
569 [label="gini = 0.0\nsamples = 11\nvalue = [11, 0]"] ;
565 -> 569 ;
570 [label="gini = 0.0\nsamples = 1\nvalue = [0, 1]"] ;
560 -> 570 ;
571 [label="gini = 0.0\nsamples = 1\nvalue = [0, 1]"] ;
553 -> 571 ;
572 [label="X[2] <= 3.5\ngini = 0.1348\nsamples = 633\nvalue = [46, 587]"] ;
552 -> 572 ;
573 [label="X[3] <= 296.5\ngini = 0.0907\nsamples = 21\nvalue = [20, 1]"] ;
572 -> 573 ;
574 [label="gini = 0.0\nsamples = 20\nvalue = [20, 0]"] ;
573 -> 574 ;
575 [label="gini = 0.0\nsamples = 1\nvalue = [0, 1]"] ;
573 -> 575 ;
576 [label="X[4] <= 7.0\ngini = 0.0814\nsamples = 612\nvalue = [26, 586]"] ;
572 -> 576 ;
577 [label="X[0] <= 0.925\ngini = 0.0425\nsamples = 599\nvalue = [13, 586]"] ;
576 -> 577 ;
578 [label="X[2] <= 5.5\ngini = 0.033\nsamples = 596\nvalue = [10, 586]"] ;
577 -> 578 ;
579 [label="X[1] <= 0.875\ngini = 0.0267\nsamples = 592\nvalue = [8, 584]"] ;
578 -> 579 ;
580 [label="X[3] <= 223.5\ngini = 0.0659\nsamples = 176\nvalue = [6, 170]"] ;
579 -> 580 ;
581 [label="X[1] <= 0.865\ngini = 0.255\nsamples = 20\nvalue = [3, 17]"] ;
580 -> 581 ;
582 [label="X[15] <= 0.5\ngini = 0.1172\nsamples = 16\nvalue = [1, 15]"] ;
581 -> 582 ;
583 [label="gini = 0.0\nsamples = 13\nvalue = [0, 13]"] ;
582 -> 583 ;
584 [label="X[2] <= 4.5\ngini = 0.4444\nsamples = 3\nvalue = [1, 2]"] ;
582 -> 584 ;
585 [label="gini = 0.0\nsamples = 2\nvalue = [0, 2]"] ;
584 -> 585 ;
586 [label="gini = 0.0\nsamples = 1\nvalue = [1, 0]"] ;
584 -> 586 ;
587 [label="X[2] <= 4.5\ngini = 0.5\nsamples = 4\nvalue = [2, 2]"] ;
581 -> 587 ;
588 [label="gini = 0.0\nsamples = 2\nvalue = [2, 0]"] ;
587 -> 588 ;
589 [label="gini = 0.0\nsamples = 2\nvalue = [0, 2]"] ;
587 -> 589 ;
590 [label="X[10] <= 0.5\ngini = 0.0377\nsamples = 156\nvalue = [3, 153]"] ;
580 -> 590 ;
591 [label="X[3] <= 265.5\ngini = 0.0263\nsamples = 150\nvalue = [2, 148]"] ;
590 -> 591 ;
592 [label="gini = 0.0\nsamples = 123\nvalue = [0, 123]"] ;
591 -> 592 ;
593 [label="X[0] <= 0.74\ngini = 0.1372\nsamples = 27\nvalue = [2, 25]"] ;
591 -> 593 ;
594 [label="X[3] <= 267.5\ngini = 0.4444\nsamples = 3\nvalue = [1, 2]"] ;
593 -> 594 ;
595 [label="gini = 0.0\nsamples = 1\nvalue = [1, 0]"] ;
594 -> 595 ;
596 [label="gini = 0.0\nsamples = 2\nvalue = [0, 2]"] ;
594 -> 596 ;
597 [label="X[4] <= 5.5\ngini = 0.0799\nsamples = 24\nvalue = [1, 23]"] ;
593 -> 597 ;
598 [label="gini = 0.0\nsamples = 21\nvalue = [0, 21]"] ;
597 -> 598 ;
599 [label="X[14] <= 0.5\ngini = 0.4444\nsamples = 3\nvalue = [1, 2]"] ;
597 -> 599 ;
600 [label="gini = 0.0\nsamples = 2\nvalue = [0, 2]"] ;
599 -> 600 ;
601 [label="gini = 0.0\nsamples = 1\nvalue = [1, 0]"] ;
599 -> 601 ;
602 [label="X[0] <= 0.865\ngini = 0.2778\nsamples = 6\nvalue = [1, 5]"] ;
590 -> 602 ;
603 [label="gini = 0.0\nsamples = 5\nvalue = [0, 5]"] ;
602 -> 603 ;
604 [label="gini = 0.0\nsamples = 1\nvalue = [1, 0]"] ;
602 -> 604 ;
605 [label="X[0] <= 0.915\ngini = 0.0096\nsamples = 416\nvalue = [2, 414]"] ;
579 -> 605 ;
606 [label="X[4] <= 5.5\ngini = 0.0049\nsamples = 406\nvalue = [1, 405]"] ;
605 -> 606 ;
607 [label="gini = 0.0\nsamples = 327\nvalue = [0, 327]"] ;
606 -> 607 ;
608 [label="X[13] <= 0.5\ngini = 0.025\nsamples = 79\nvalue = [1, 78]"] ;
606 -> 608 ;
609 [label="gini = 0.0\nsamples = 64\nvalue = [0, 64]"] ;
608 -> 609 ;
610 [label="X[3] <= 247.0\ngini = 0.1244\nsamples = 15\nvalue = [1, 14]"] ;
608 -> 610 ;
611 [label="X[3] <= 237.0\ngini = 0.375\nsamples = 4\nvalue = [1, 3]"] ;
610 -> 611 ;
612 [label="gini = 0.0\nsamples = 3\nvalue = [0, 3]"] ;
611 -> 612 ;
613 [label="gini = 0.0\nsamples = 1\nvalue = [1, 0]"] ;
611 -> 613 ;
614 [label="gini = 0.0\nsamples = 11\nvalue = [0, 11]"] ;
610 -> 614 ;
615 [label="X[3] <= 239.0\ngini = 0.18\nsamples = 10\nvalue = [1, 9]"] ;
605 -> 615 ;
616 [label="gini = 0.0\nsamples = 1\nvalue = [1, 0]"] ;
615 -> 616 ;
617 [label="gini = 0.0\nsamples = 9\nvalue = [0, 9]"] ;
615 -> 617 ;
618 [label="X[1] <= 0.835\ngini = 0.5\nsamples = 4\nvalue = [2, 2]"] ;
578 -> 618 ;
619 [label="gini = 0.0\nsamples = 2\nvalue = [0, 2]"] ;
618 -> 619 ;
620 [label="gini = 0.0\nsamples = 2\nvalue = [2, 0]"] ;
618 -> 620 ;
621 [label="gini = 0.0\nsamples = 3\nvalue = [3, 0]"] ;
577 -> 621 ;
622 [label="gini = 0.0\nsamples = 13\nvalue = [13, 0]"] ;
576 -> 622 ;
}